digraph Tree {
node [shape=box] ;
0 [label="X[0] <= 2.5\ngini = 0.666\nsamples = 414\nvalue = [130, 148, 136]"] ;
1 [label="X[1] <= 3.5\ngini = 0.616\nsamples = 293\nvalue = [49, 142, 102]"] ;
0 -> 1 [labeldistance=2.5, labelangle=45, headlabel="True"] ;
2 [label="X[1] <= 1.5\ngini = 0.522\nsamples = 160\nvalue = [10, 96, 54]"] ;
1 -> 2 ;
3 [label="X[0] <= 1.5\ngini = 0.416\nsamples = 70\nvalue = [1, 50, 19]"] ;
2 -> 3 ;
4 [label="gini = 0.425\nsamples = 61\nvalue = [1, 43, 17]"] ;
3 -> 4 ;
5 [label="gini = 0.346\nsamples = 9\nvalue = [0, 7, 2]"] ;
3 -> 5 ;
6 [label="X[1] <= 2.5\ngini = 0.578\nsamples = 90\nvalue = [9, 46, 35]"] ;
2 -> 6 ;
7 [label="X[0] <= 1.5\ngini = 0.551\nsamples = 53\nvalue = [3, 26, 24]"] ;
6 -> 7 ;
8 [label="gini = 0.537\nsamples = 43\nvalue = [2, 23, 18]"] ;
7 -> 8 ;
9 [label="gini = 0.54\nsamples = 10\nvalue = [1, 3, 6]"] ;
7 -> 9 ;
10 [label="X[0] <= 1.5\ngini = 0.593\nsamples = 37\nvalue = [6, 20, 11]"] ;
6 -> 10 ;
11 [label="gini = 0.577\nsamples = 26\nvalue = [3, 14, 9]"] ;
10 -> 11 ;
12 [label="gini = 0.595\nsamples = 11\nvalue = [3, 6, 2]"] ;
10 -> 12 ;
13 [label="X[1] <= 11.5\ngini = 0.664\nsamples = 133\nvalue = [39, 46, 48]"] ;
1 -> 13 ;
14 [label="X[0] <= 1.5\ngini = 0.651\nsamples = 105\nvalue = [25, 43, 37]"] ;
13 -> 14 ;
15 [label="X[1] <= 7.5\ngini = 0.623\nsamples = 79\nvalue = [13, 35, 31]"] ;
14 -> 15 ;
16 [label="X[1] <= 4.5\ngini = 0.622\nsamples = 61\nvalue = [10, 24, 27]"] ;
15 -> 16 ;
17 [label="gini = 0.58\nsamples = 20\nvalue = [2, 8, 10]"] ;
16 -> 17 ;
18 [label="X[1] <= 6.5\ngini = 0.638\nsamples = 41\nvalue = [8, 16, 17]"] ;
16 -> 18 ;
19 [label="X[1] <= 5.5\ngini = 0.646\nsamples = 32\nvalue = [7, 12, 13]"] ;
18 -> 19 ;
20 [label="gini = 0.648\nsamples = 18\nvalue = [4, 7, 7]"] ;
19 -> 20 ;
21 [label="gini = 0.643\nsamples = 14\nvalue = [3, 5, 6]"] ;
19 -> 21 ;
22 [label="gini = 0.593\nsamples = 9\nvalue = [1, 4, 4]"] ;
18 -> 22 ;
23 [label="X[1] <= 10.5\ngini = 0.549\nsamples = 18\nvalue = [3, 11, 4]"] ;
15 -> 23 ;
24 [label="X[1] <= 9.5\ngini = 0.56\nsamples = 15\nvalue = [3, 9, 3]"] ;
23 -> 24 ;
25 [label="X[1] <= 8.5\ngini = 0.544\nsamples = 13\nvalue = [2, 8, 3]"] ;
24 -> 25 ;
26 [label="gini = 0.571\nsamples = 7\nvalue = [1, 4, 2]"] ;
25 -> 26 ;
27 [label="gini = 0.5\nsamples = 6\nvalue = [1, 4, 1]"] ;
25 -> 27 ;
28 [label="gini = 0.5\nsamples = 2\nvalue = [1, 1, 0]"] ;
24 -> 28 ;
29 [label="gini = 0.444\nsamples = 3\nvalue = [0, 2, 1]"] ;
23 -> 29 ;
30 [label="X[1] <= 7.5\ngini = 0.639\nsamples = 26\nvalue = [12, 8, 6]"] ;
14 -> 30 ;
31 [label="X[1] <= 4.5\ngini = 0.586\nsamples = 18\nvalue = [9, 7, 2]"] ;
30 -> 31 ;
32 [label="gini = 0.531\nsamples = 8\nvalue = [5, 2, 1]"] ;
31 -> 32 ;
33 [label="X[1] <= 5.5\ngini = 0.58\nsamples = 10\nvalue = [4, 5, 1]"] ;
31 -> 33 ;
34 [label="gini = 0.444\nsamples = 3\nvalue = [0, 2, 1]"] ;
33 -> 34 ;
35 [label="X[1] <= 6.5\ngini = 0.49\nsamples = 7\nvalue = [4, 3, 0]"] ;
33 -> 35 ;
36 [label="gini = 0.48\nsamples = 5\nvalue = [3, 2, 0]"] ;
35 -> 36 ;
37 [label="gini = 0.5\nsamples = 2\nvalue = [1, 1, 0]"] ;
35 -> 37 ;
38 [label="X[1] <= 10.5\ngini = 0.594\nsamples = 8\nvalue = [3, 1, 4]"] ;
30 -> 38 ;
39 [label="X[1] <= 8.5\ngini = 0.49\nsamples = 7\nvalue = [3, 0, 4]"] ;
38 -> 39 ;
40 [label="gini = 0.0\nsamples = 2\nvalue = [0, 0, 2]"] ;
39 -> 40 ;
41 [label="X[1] <= 9.5\ngini = 0.48\nsamples = 5\nvalue = [3, 0, 2]"] ;
39 -> 41 ;
42 [label="gini = 0.5\nsamples = 4\nvalue = [2, 0, 2]"] ;
41 -> 42 ;
43 [label="gini = 0.0\nsamples = 1\nvalue = [1, 0, 0]"] ;
41 -> 43 ;
44 [label="gini = 0.0\nsamples = 1\nvalue = [0, 1, 0]"] ;
38 -> 44 ;
45 [label="X[1] <= 25.0\ngini = 0.584\nsamples = 28\nvalue = [14, 3, 11]"] ;
13 -> 45 ;
46 [label="X[1] <= 12.5\ngini = 0.607\nsamples = 22\nvalue = [9, 3, 10]"] ;
45 -> 46 ;
47 [label="X[0] <= 1.5\ngini = 0.375\nsamples = 4\nvalue = [3, 0, 1]"] ;
46 -> 47 ;
48 [label="gini = 0.444\nsamples = 3\nvalue = [2, 0, 1]"] ;
47 -> 48 ;
49 [label="gini = 0.0\nsamples = 1\nvalue = [1, 0, 0]"] ;
47 -> 49 ;
50 [label="X[0] <= 1.5\ngini = 0.611\nsamples = 18\nvalue = [6, 3, 9]"] ;
46 -> 50 ;
51 [label="X[1] <= 15.5\ngini = 0.66\nsamples = 10\nvalue = [3, 3, 4]"] ;
50 -> 51 ;
52 [label="X[1] <= 13.5\ngini = 0.56\nsamples = 5\nvalue = [1, 1, 3]"] ;
51 -> 52 ;
53 [label="gini = 0.667\nsamples = 3\nvalue = [1, 1, 1]"] ;
52 -> 53 ;
54 [label="gini = 0.0\nsamples = 2\nvalue = [0, 0, 2]"] ;
52 -> 54 ;
55 [label="X[1] <= 22.5\ngini = 0.64\nsamples = 5\nvalue = [2, 2, 1]"] ;
51 -> 55 ;
56 [label="X[1] <= 16.5\ngini = 0.5\nsamples = 4\nvalue = [2, 2, 0]"] ;
55 -> 56 ;
57 [label="gini = 0.0\nsamples = 1\nvalue = [0, 1, 0]"] ;
56 -> 57 ;
58 [label="X[1] <= 21.0\ngini = 0.444\nsamples = 3\nvalue = [2, 1, 0]"] ;
56 -> 58 ;
59 [label="gini = 0.0\nsamples = 2\nvalue = [2, 0, 0]"] ;
58 -> 59 ;
60 [label="gini = 0.0\nsamples = 1\nvalue = [0, 1, 0]"] ;
58 -> 60 ;
61 [label="gini = 0.0\nsamples = 1\nvalue = [0, 0, 1]"] ;
55 -> 61 ;
62 [label="X[1] <= 22.0\ngini = 0.469\nsamples = 8\nvalue = [3, 0, 5]"] ;
50 -> 62 ;
63 [label="X[1] <= 16.5\ngini = 0.408\nsamples = 7\nvalue = [2, 0, 5]"] ;
62 -> 63 ;
64 [label="gini = 0.5\nsamples = 2\nvalue = [1, 0, 1]"] ;
63 -> 64 ;
65 [label="X[1] <= 20.5\ngini = 0.32\nsamples = 5\nvalue = [1, 0, 4]"] ;
63 -> 65 ;
66 [label="gini = 0.0\nsamples = 3\nvalue = [0, 0, 3]"] ;
65 -> 66 ;
67 [label="gini = 0.5\nsamples = 2\nvalue = [1, 0, 1]"] ;
65 -> 67 ;
68 [label="gini = 0.0\nsamples = 1\nvalue = [1, 0, 0]"] ;
62 -> 68 ;
69 [label="X[0] <= 1.5\ngini = 0.278\nsamples = 6\nvalue = [5, 0, 1]"] ;
45 -> 69 ;
70 [label="gini = 0.0\nsamples = 4\nvalue = [4, 0, 0]"] ;
69 -> 70 ;
71 [label="X[1] <= 33.5\ngini = 0.5\nsamples = 2\nvalue = [1, 0, 1]"] ;
69 -> 71 ;
72 [label="gini = 0.0\nsamples = 1\nvalue = [1, 0, 0]"] ;
71 -> 72 ;
73 [label="gini = 0.0\nsamples = 1\nvalue = [0, 0, 1]"] ;
71 -> 73 ;
74 [label="X[0] <= 4.5\ngini = 0.47\nsamples = 121\nvalue = [81, 6, 34]"] ;
0 -> 74 [labeldistance=2.5, labelangle=-45, headlabel="False"] ;
75 [label="X[1] <= 10.5\ngini = 0.569\nsamples = 72\nvalue = [36, 6, 30]"] ;
74 -> 75 ;
76 [label="X[1] <= 1.5\ngini = 0.584\nsamples = 52\nvalue = [19, 6, 27]"] ;
75 -> 76 ;
77 [label="X[0] <= 3.5\ngini = 0.219\nsamples = 8\nvalue = [0, 1, 7]"] ;
76 -> 77 ;
78 [label="gini = 0.32\nsamples = 5\nvalue = [0, 1, 4]"] ;
77 -> 78 ;
79 [label="gini = 0.0\nsamples = 3\nvalue = [0, 0, 3]"] ;
77 -> 79 ;
80 [label="X[1] <= 2.5\ngini = 0.594\nsamples = 44\nvalue = [19, 5, 20]"] ;
76 -> 80 ;
81 [label="X[0] <= 3.5\ngini = 0.444\nsamples = 6\nvalue = [4, 2, 0]"] ;
80 -> 81 ;
82 [label="gini = 0.48\nsamples = 5\nvalue = [3, 2, 0]"] ;
81 -> 82 ;
83 [label="gini = 0.0\nsamples = 1\nvalue = [1, 0, 0]"] ;
81 -> 83 ;
84 [label="X[1] <= 3.5\ngini = 0.561\nsamples = 38\nvalue = [15, 3, 20]"] ;
80 -> 84 ;
85 [label="X[0] <= 3.5\ngini = 0.653\nsamples = 7\nvalue = [2, 2, 3]"] ;
84 -> 85 ;
86 [label="gini = 0.444\nsamples = 3\nvalue = [0, 2, 1]"] ;
85 -> 86 ;
87 [label="gini = 0.5\nsamples = 4\nvalue = [2, 0, 2]"] ;
85 -> 87 ;
88 [label="X[1] <= 4.5\ngini = 0.522\nsamples = 31\nvalue = [13, 1, 17]"] ;
84 -> 88 ;
89 [label="X[0] <= 3.5\ngini = 0.49\nsamples = 7\nvalue = [4, 0, 3]"] ;
88 -> 89 ;
90 [label="gini = 0.444\nsamples = 3\nvalue = [2, 0, 1]"] ;
89 -> 90 ;
91 [label="gini = 0.5\nsamples = 4\nvalue = [2, 0, 2]"] ;
89 -> 91 ;
92 [label="X[1] <= 8.5\ngini = 0.517\nsamples = 24\nvalue = [9, 1, 14]"] ;
88 -> 92 ;
93 [label="X[0] <= 3.5\ngini = 0.499\nsamples = 19\nvalue = [6, 1, 12]"] ;
92 -> 93 ;
94 [label="X[1] <= 5.5\ngini = 0.444\nsamples = 12\nvalue = [4, 0, 8]"] ;
93 -> 94 ;
95 [label="gini = 0.32\nsamples = 5\nvalue = [1, 0, 4]"] ;
94 -> 95 ;
96 [label="X[1] <= 7.5\ngini = 0.49\nsamples = 7\nvalue = [3, 0, 4]"] ;
94 -> 96 ;
97 [label="X[1] <= 6.5\ngini = 0.5\nsamples = 4\nvalue = [2, 0, 2]"] ;
96 -> 97 ;
98 [label="gini = 0.5\nsamples = 2\nvalue = [1, 0, 1]"] ;
97 -> 98 ;
99 [label="gini = 0.5\nsamples = 2\nvalue = [1, 0, 1]"] ;
97 -> 99 ;
100 [label="gini = 0.444\nsamples = 3\nvalue = [1, 0, 2]"] ;
96 -> 100 ;
101 [label="X[1] <= 5.5\ngini = 0.571\nsamples = 7\nvalue = [2, 1, 4]"] ;
93 -> 101 ;
102 [label="gini = 0.667\nsamples = 3\nvalue = [1, 1, 1]"] ;
101 -> 102 ;
103 [label="X[1] <= 6.5\ngini = 0.375\nsamples = 4\nvalue = [1, 0, 3]"] ;
101 -> 103 ;
104 [label="gini = 0.0\nsamples = 1\nvalue = [0, 0, 1]"] ;
103 -> 104 ;
105 [label="gini = 0.444\nsamples = 3\nvalue = [1, 0, 2]"] ;
103 -> 105 ;
106 [label="X[0] <= 3.5\ngini = 0.48\nsamples = 5\nvalue = [3, 0, 2]"] ;
92 -> 106 ;
107 [label="X[1] <= 9.5\ngini = 0.5\nsamples = 4\nvalue = [2, 0, 2]"] ;
106 -> 107 ;
108 [label="gini = 0.5\nsamples = 2\nvalue = [1, 0, 1]"] ;
107 -> 108 ;
109 [label="gini = 0.5\nsamples = 2\nvalue = [1, 0, 1]"] ;
107 -> 109 ;
110 [label="gini = 0.0\nsamples = 1\nvalue = [1, 0, 0]"] ;
106 -> 110 ;
111 [label="X[1] <= 18.0\ngini = 0.255\nsamples = 20\nvalue = [17, 0, 3]"] ;
75 -> 111 ;
112 [label="X[1] <= 15.5\ngini = 0.355\nsamples = 13\nvalue = [10, 0, 3]"] ;
111 -> 112 ;
113 [label="X[1] <= 11.5\ngini = 0.219\nsamples = 8\nvalue = [7, 0, 1]"] ;
112 -> 113 ;
114 [label="X[0] <= 3.5\ngini = 0.32\nsamples = 5\nvalue = [4, 0, 1]"] ;
113 -> 114 ;
115 [label="gini = 0.444\nsamples = 3\nvalue = [2, 0, 1]"] ;
114 -> 115 ;
116 [label="gini = 0.0\nsamples = 2\nvalue = [2, 0, 0]"] ;
114 -> 116 ;
117 [label="gini = 0.0\nsamples = 3\nvalue = [3, 0, 0]"] ;
113 -> 117 ;
118 [label="X[0] <= 3.5\ngini = 0.48\nsamples = 5\nvalue = [3, 0, 2]"] ;
112 -> 118 ;
119 [label="gini = 0.0\nsamples = 2\nvalue = [2, 0, 0]"] ;
118 -> 119 ;
120 [label="X[1] <= 16.5\ngini = 0.444\nsamples = 3\nvalue = [1, 0, 2]"] ;
118 -> 120 ;
121 [label="gini = 0.0\nsamples = 1\nvalue = [0, 0, 1]"] ;
120 -> 121 ;
122 [label="gini = 0.5\nsamples = 2\nvalue = [1, 0, 1]"] ;
120 -> 122 ;
123 [label="gini = 0.0\nsamples = 7\nvalue = [7, 0, 0]"] ;
111 -> 123 ;
124 [label="X[1] <= 1.5\ngini = 0.15\nsamples = 49\nvalue = [45, 0, 4]"] ;
74 -> 124 ;
125 [label="gini = 0.0\nsamples = 1\nvalue = [0, 0, 1]"] ;
124 -> 125 ;
126 [label="X[1] <= 7.5\ngini = 0.117\nsamples = 48\nvalue = [45, 0, 3]"] ;
124 -> 126 ;
127 [label="X[1] <= 6.5\ngini = 0.236\nsamples = 22\nvalue = [19, 0, 3]"] ;
126 -> 127 ;
128 [label="X[1] <= 4.5\ngini = 0.18\nsamples = 20\nvalue = [18, 0, 2]"] ;
127 -> 128 ;
129 [label="X[0] <= 5.5\ngini = 0.298\nsamples = 11\nvalue = [9, 0, 2]"] ;
128 -> 129 ;
130 [label="gini = 0.0\nsamples = 1\nvalue = [1, 0, 0]"] ;
129 -> 130 ;
131 [label="X[0] <= 9.5\ngini = 0.32\nsamples = 10\nvalue = [8, 0, 2]"] ;
129 -> 131 ;
132 [label="X[0] <= 7.5\ngini = 0.346\nsamples = 9\nvalue = [7, 0, 2]"] ;
131 -> 132 ;
133 [label="X[1] <= 3.5\ngini = 0.278\nsamples = 6\nvalue = [5, 0, 1]"] ;
132 -> 133 ;
134 [label="gini = 0.0\nsamples = 3\nvalue = [3, 0, 0]"] ;
133 -> 134 ;
135 [label="X[0] <= 6.5\ngini = 0.444\nsamples = 3\nvalue = [2, 0, 1]"] ;
133 -> 135 ;
136 [label="gini = 0.5\nsamples = 2\nvalue = [1, 0, 1]"] ;
135 -> 136 ;
137 [label="gini = 0.0\nsamples = 1\nvalue = [1, 0, 0]"] ;
135 -> 137 ;
138 [label="X[1] <= 3.0\ngini = 0.444\nsamples = 3\nvalue = [2, 0, 1]"] ;
132 -> 138 ;
139 [label="gini = 0.5\nsamples = 2\nvalue = [1, 0, 1]"] ;
138 -> 139 ;
140 [label="gini = 0.0\nsamples = 1\nvalue = [1, 0, 0]"] ;
138 -> 140 ;
141 [label="gini = 0.0\nsamples = 1\nvalue = [1, 0, 0]"] ;
131 -> 141 ;
142 [label="gini = 0.0\nsamples = 9\nvalue = [9, 0, 0]"] ;
128 -> 142 ;
143 [label="gini = 0.5\nsamples = 2\nvalue = [1, 0, 1]"] ;
127 -> 143 ;
144 [label="gini = 0.0\nsamples = 26\nvalue = [26, 0, 0]"] ;
126 -> 144 ;
}